-7.605129480361938477e-01 1.899030357599258423e-01 -3.264465332031250000e-01 2.313410341739654541e-01 5.481135845184326172e-02 -1.765064895153045654e-02 1.377379335463047028e-02 -5.393326878547668457e-01 -3.158161044120788574e-01 -1.513500809669494629e-01 -5.748136639595031738e-01 -3.141419291496276855e-01
7.671570777893066406e-01 -6.332695484161376953e-02 -1.011666879057884216e-01 -2.009832710027694702e-01 -2.448026686906814575e-01 3.300154507160186768e-01 2.066875249147415161e-01 1.461670845746994019e-01 3.673942089080810547e-01 6.968333125114440918e-01 1.986522525548934937e-01 -2.636274993419647217e-01
-2.239169478416442871e-01 2.285039722919464111e-01 -1.139915436506271362e-01 3.158890902996063232e-01 -3.528996706008911133e-01 -6.607691757380962372e-03 -1.084440853446722031e-02 1.535205841064453125e-01 4.476538598537445068e-01 -2.384441792964935303e-01 9.451574832201004028e-02 -1.747270375490188599e-01
-3.005827963352203369e-01 -2.765263020992279053e-01 -1.070197820663452148e-01 -1.363403946161270142e-01 -1.074961796402931213e-01 4.063722118735313416e-02 -3.861050307750701904e-02 -2.294386550784111023e-02 4.185046628117561340e-02 1.207615658640861511e-01 -3.536181747913360596e-01 4.031020402908325195e-01
-1.735892593860626221e-01 3.272266983985900879e-01 -2.006654143333435059e-01 -4.815319478511810303e-01 -1.625875756144523621e-02 -8.977768942713737488e-03 5.312521383166313171e-02 -7.379498481750488281e-01 -8.392090201377868652e-01 -1.768029481172561646e-01 6.405692696571350098e-01 7.695395499467849731e-02
-6.534596085548400879e-01 2.171384990215301514e-01 -2.291417419910430908e-01 -2.037062495946884155e-01 3.696345984935760498e-01 1.979375779628753662e-01 1.303114145994186401e-01 1.714452207088470459e-01 1.259048283100128174e-01 -4.285972714424133301e-01 1.389866918325424194e-01 -7.204024791717529297e-01
-3.994689509272575378e-02 1.684009432792663574e-01 8.326703906059265137e-01 -1.607871055603027344e-01 -1.017091125249862671e-01 -4.074415266513824463e-01 5.374719500541687012e-01 4.386101365089416504e-01 2.707116305828094482e-01 -3.032758459448814392e-02 5.766612291336059570e-01 -4.288682639598846436e-01
