3.381083309650421143e-01 7.651017904281616211e-01 -4.668987393379211426e-01 -1.502639651298522949e-01 4.808939993381500244e-01 -2.410556524991989136e-01 1.002588029950857162e-02 4.830214679241180420e-01
-2.174302935600280762e-01 3.971663489937782288e-02 -2.140909284353256226e-01 1.708972752094268799e-01 -3.243111073970794678e-01 1.895738840103149414e-01 -2.657760679721832275e-01 1.629438847303390503e-01
-1.227451637387275696e-01 -9.642540477216243744e-03 -2.817399501800537109e-01 -3.266777992248535156e-01 2.653402090072631836e-02 1.454011201858520508e-01 -5.098611116409301758e-01 2.174104899168014526e-01
-2.958486378192901611e-01 -1.188857257366180420e-01 -2.785391509532928467e-01 -1.854716390371322632e-01 -2.423407733440399170e-01 -2.719343639910221100e-02 -1.687732487916946411e-01 -3.995311260223388672e-02
5.784171223640441895e-01 1.328704804182052612e-01 -1.096684485673904419e-01 6.948925256729125977e-01 -5.686765909194946289e-01 -3.401072323322296143e-01 -1.836311519145965576e-01 -2.211718708276748657e-01
4.703012406826019287e-01 -4.189428091049194336e-01 3.365238308906555176e-01 2.384067028760910034e-01 -4.854700565338134766e-01 1.640115082263946533e-01 -5.714977383613586426e-01 -2.213257551193237305e-01
3.489416092634201050e-02 -1.581250727176666260e-01 1.999190747737884521e-01 -1.769227683544158936e-01 -3.798530101776123047e-01 1.773048341274261475e-01 -2.049322426319122314e-01 3.171198666095733643e-01
3.742794394493103027e-01 -2.056230157613754272e-01 -3.753428757190704346e-01 -6.615803241729736328e-01 -4.735342785716056824e-02 -1.859260499477386475e-01 3.044003844261169434e-01 5.103135704994201660e-01
3.211354911327362061e-01 -9.624253213405609131e-02 2.479080110788345337e-01 -1.579355597496032715e-01 -1.706235110759735107e-01 -1.222436428070068359e-01 -5.432364940643310547e-01 -5.347924232482910156e-01
4.138255715370178223e-01 6.986684799194335938e-01 6.128908991813659668e-01 1.111716106534004211e-01 -2.951096892356872559e-01 1.106403693556785583e-01 5.604575276374816895e-01 2.268346957862377167e-02
3.579584360122680664e-01 3.677792251110076904e-01 -1.940649598836898804e-01 -1.509519964456558228e-01 3.688642680644989014e-01 -1.946332603693008423e-01 3.933207690715789795e-01 -2.720611393451690674e-01
-9.513580799102783203e-02 -3.250411152839660645e-02 2.248748093843460083e-01 2.030075341463088989e-01 2.378495931625366211e-01 1.574646495282649994e-02 1.447252780199050903e-01 -3.916602209210395813e-02
